digraph Tree {
node [shape=box, style="filled, rounded", color="black", fontname=helvetica] ;
edge [fontname=helvetica] ;
0 [label="petal width (cm) <= 0.8\ngini = 0.66\nsamples = 102\nvalue = [41, 51, 58]\nclass = virginica", fillcolor="#f6f1fd"] ;
1 [label="gini = 0.0\nsamples = 29\nvalue = [41, 0, 0]\nclass = setosa", fillcolor="#e58139"] ;
0 -> 1 [labeldistance=2.5, labelangle=45, headlabel="True"] ;
2 [label="petal length (cm) <= 4.95\ngini = 0.5\nsamples = 73\nvalue = [0, 51, 58]\nclass = virginica", fillcolor="#f0e7fc"] ;
0 -> 2 [labeldistance=2.5, labelangle=-45, headlabel="False"] ;
3 [label="petal length (cm) <= 4.75\ngini = 0.17\nsamples = 37\nvalue = [0, 49, 5]\nclass = versicolor", fillcolor="#4de88e"] ;
2 -> 3 ;
4 [label="petal width (cm) <= 1.65\ngini = 0.08\nsamples = 32\nvalue = [0, 45, 2]\nclass = versicolor", fillcolor="#42e687"] ;
3 -> 4 ;
5 [label="gini = 0.0\nsamples = 31\nvalue = [0, 45, 0]\nclass = versicolor", fillcolor="#39e581"] ;
4 -> 5 ;
6 [label="gini = 0.0\nsamples = 1\nvalue = [0, 0, 2]\nclass = virginica", fillcolor="#8139e5"] ;
4 -> 6 ;
7 [label="petal width (cm) <= 1.65\ngini = 0.49\nsamples = 5\nvalue = [0, 4, 3]\nclass = versicolor", fillcolor="#cef8e0"] ;
3 -> 7 ;
8 [label="gini = 0.0\nsamples = 2\nvalue = [0, 3, 0]\nclass = versicolor", fillcolor="#39e581"] ;
7 -> 8 ;
9 [label="sepal width (cm) <= 3.0\ngini = 0.38\nsamples = 3\nvalue = [0, 1, 3]\nclass = virginica", fillcolor="#ab7bee"] ;
7 -> 9 ;
10 [label="gini = 0.0\nsamples = 2\nvalue = [0, 0, 3]\nclass = virginica", fillcolor="#8139e5"] ;
9 -> 10 ;
11 [label="gini = 0.0\nsamples = 1\nvalue = [0, 1, 0]\nclass = versicolor", fillcolor="#39e581"] ;
9 -> 11 ;
12 [label="petal length (cm) <= 5.05\ngini = 0.07\nsamples = 36\nvalue = [0, 2, 53]\nclass = virginica", fillcolor="#8640e6"] ;
2 -> 12 ;
13 [label="sepal width (cm) <= 2.75\ngini = 0.41\nsamples = 4\nvalue = [0, 2, 5]\nclass = virginica", fillcolor="#b388ef"] ;
12 -> 13 ;
14 [label="gini = 0.0\nsamples = 3\nvalue = [0, 0, 5]\nclass = virginica", fillcolor="#8139e5"] ;
13 -> 14 ;
15 [label="gini = 0.0\nsamples = 1\nvalue = [0, 2, 0]\nclass = versicolor", fillcolor="#39e581"] ;
13 -> 15 ;
16 [label="gini = 0.0\nsamples = 32\nvalue = [0, 0, 48]\nclass = virginica", fillcolor="#8139e5"] ;
12 -> 16 ;
}